{"sizes":[14,7,4],"layers":[{"age":{},"pos":{},"gp":{},"g":{},"a":{},"p":{},"pim":{},"pm":{},"ppg":{},"shg":{},"gwg":{},"g_gp":{},"a_gp":{},"p_gp":{}},{"0":{"bias":-3.7717061042785645,"weights":{"age":-46.844425201416016,"pos":-57.563655853271484,"gp":23.93056869506836,"g":30.312631607055664,"a":-12.885381698608398,"p":-2.4279394149780273,"pim":25.735654830932617,"pm":-12.868086814880371,"ppg":-3.1391208171844482,"shg":-2.4153947830200195,"gwg":3.3158860206604004,"g_gp":-22.934711456298828,"a_gp":5.218029975891113,"p_gp":16.125728607177734}},"1":{"bias":15.48501968383789,"weights":{"age":-24.000246047973633,"pos":-33.30887222290039,"gp":1.3456670045852661,"g":10.642081260681152,"a":0.1511865109205246,"p":-4.36932373046875,"pim":0.5411275625228882,"pm":-15.026054382324219,"ppg":-8.538379669189453,"shg":0.9080468416213989,"gwg":-1.7569910287857056,"g_gp":-28.51776123046875,"a_gp":10.317869186401367,"p_gp":-17.57455825805664}},"2":{"bias":-40.38496017456055,"weights":{"age":75.30720520019531,"pos":-1.2977750301361084,"gp":340.12518310546875,"g":0.5645052790641785,"a":0.3704829812049866,"p":-0.6077182292938232,"pim":1.8190734386444092,"pm":-1.731978416442871,"ppg":-0.1518271565437317,"shg":-0.33364561200141907,"gwg":-0.6297540664672852,"g_gp":0.042650867253541946,"a_gp":-0.5779760479927063,"p_gp":-0.0791558250784874}},"3":{"bias":-13.75619888305664,"weights":{"age":2.0408546924591064,"pos":-0.1351446807384491,"gp":42.210899353027344,"g":-1.4859185218811035,"a":3.835566997528076,"p":-3.9244651794433594,"pim":-1.4948874711990356,"pm":7.817282676696777,"ppg":-0.7489556074142456,"shg":2.9404752254486084,"gwg":2.47599720954895,"g_gp":-3.517972469329834,"a_gp":5.939016342163086,"p_gp":-9.21683406829834}},"4":{"bias":-16.262392044067383,"weights":{"age":-3.0294432640075684,"pos":-12.32727336883545,"gp":16.43898582458496,"g":9.821699142456055,"a":-5.091438293457031,"p":18.242374420166016,"pim":34.89460372924805,"pm":-52.54099655151367,"ppg":-19.664934158325195,"shg":-11.643815040588379,"gwg":-17.7789306640625,"g_gp":-2.8571834564208984,"a_gp":-8.61731243133545,"p_gp":-11.217581748962402}},"5":{"bias":-3.6295807361602783,"weights":{"age":39.473419189453125,"pos":-15.433812141418457,"gp":-1.179208755493164,"g":-6.245608806610107,"a":-1.9573746919631958,"p":0.2892281413078308,"pim":0.6917215585708618,"pm":2.985841989517212,"ppg":13.576106071472168,"shg":-13.162836074829102,"gwg":-0.97998046875,"g_gp":-3.631542921066284,"a_gp":17.58339500427246,"p_gp":-18.415786743164062}},"6":{"bias":-0.4695925712585449,"weights":{"age":-21.537046432495117,"pos":16.027626037597656,"gp":-11.815489768981934,"g":-23.477493286132812,"a":-6.87680721282959,"p":-8.06756591796875,"pim":39.3924674987793,"pm":-27.44104766845703,"ppg":-2.478344678878784,"shg":20.95785903930664,"gwg":12.523052215576172,"g_gp":2.3360300064086914,"a_gp":-35.662109375,"p_gp":-33.144935607910156}}},{"gold":{"bias":-1.177006721496582,"weights":{"0":-1.2123513221740723,"1":0.8775328397750854,"2":-3.1980185508728027,"3":1.0546510219573975,"4":2.02897310256958,"5":3.984734535217285,"6":-1.0909794569015503}},"silver":{"bias":-1.276472568511963,"weights":{"0":-1.2923853397369385,"1":2.3040425777435303,"2":-3.0271823406219482,"3":0.48874908685684204,"4":-0.35513970255851746,"5":-7.3658905029296875,"6":1.164717197418213}},"bronze":{"bias":-2.094118356704712,"weights":{"0":-2.7001848220825195,"1":1.9895360469818115,"2":-3.2421975135803223,"3":1.557165503501892,"4":0.47266602516174316,"5":6.033670902252197,"6":0.11614172905683517}},"no_medal":{"bias":-0.3719794750213623,"weights":{"0":3.482344388961792,"1":-2.289902687072754,"2":5.282179832458496,"3":-1.587415337562561,"4":-1.4696235656738281,"5":-5.834872245788574,"6":-0.3289623558521271}}}],"outputLookup":true,"inputLookup":true,"activation":"sigmoid","trainOpts":{"iterations":20000,"errorThresh":0.005,"log":true,"logPeriod":10,"learningRate":0.3,"momentum":0.1,"callbackPeriod":10,"beta1":0.9,"beta2":0.999,"epsilon":1e-8}}